digraph Tree {
node [shape=box] ;
0 [label="hosp_yn_Yes <= 0.5\ngini = 0.068\nsamples = 6937\nvalue = [6691, 246]"] ;
1 [label="age_group_80+ Years <= 0.5\ngini = 0.032\nsamples = 6447\nvalue = [6342, 105]"] ;
0 -> 1 [labeldistance=2.5, labelangle=45, headlabel="True"] ;
2 [label="age_group_70 - 79 Years <= 0.5\ngini = 0.015\nsamples = 6204\nvalue = [6156, 48]"] ;
1 -> 2 ;
3 [label="age_group_60 - 69 Years <= 0.5\ngini = 0.007\nsamples = 5888\nvalue = [5866, 22]"] ;
2 -> 3 ;
4 [label="age_group_50 - 59 Years <= 0.5\ngini = 0.005\nsamples = 5262\nvalue = [5249, 13]"] ;
3 -> 4 ;
5 [label="age_group_40 - 49 Years <= 0.5\ngini = 0.003\nsamples = 4323\nvalue = [4317, 6]"] ;
4 -> 5 ;
6 [label="icu_yn_Unknown <= 0.5\ngini = 0.002\nsamples = 3354\nvalue = [3351, 3]"] ;
5 -> 6 ;
7 [label="age_group_20 - 29 Years <= 0.5\ngini = 0.007\nsamples = 304\nvalue = [303, 1]"] ;
6 -> 7 ;
8 [label="gini = 0.0\nsamples = 190\nvalue = [190, 0]"] ;
7 -> 8 ;
9 [label="medcond_yn_Unknown <= 0.5\ngini = 0.017\nsamples = 114\nvalue = [113, 1]"] ;
7 -> 9 ;
10 [label="medcond_yn_Yes <= 0.5\ngini = 0.024\nsamples = 84\nvalue = [83, 1]"] ;
9 -> 10 ;
11 [label="gini = 0.03\nsamples = 65\nvalue = [64, 1]"] ;
10 -> 11 ;
12 [label="gini = 0.0\nsamples = 19\nvalue = [19, 0]"] ;
10 -> 12 ;
13 [label="gini = 0.0\nsamples = 30\nvalue = [30, 0]"] ;
9 -> 13 ;
14 [label="hosp_yn_Unknown <= 0.5\ngini = 0.001\nsamples = 3050\nvalue = [3048, 2]"] ;
6 -> 14 ;
15 [label="gini = 0.0\nsamples = 1565\nvalue = [1565, 0]"] ;
14 -> 15 ;
16 [label="age_group_10 - 19 Years <= 0.5\ngini = 0.003\nsamples = 1485\nvalue = [1483, 2]"] ;
14 -> 16 ;
17 [label="medcond_yn_Unknown <= 0.5\ngini = 0.003\nsamples = 1210\nvalue = [1208, 2]"] ;
16 -> 17 ;
18 [label="gini = 0.0\nsamples = 78\nvalue = [78, 0]"] ;
17 -> 18 ;
19 [label="gini = 0.004\nsamples = 1132\nvalue = [1130, 2]"] ;
17 -> 19 ;
20 [label="gini = 0.0\nsamples = 275\nvalue = [275, 0]"] ;
16 -> 20 ;
21 [label="medcond_yn_Yes <= 0.5\ngini = 0.006\nsamples = 969\nvalue = [966, 3]"] ;
5 -> 21 ;
22 [label="medcond_yn_Unknown <= 0.5\ngini = 0.004\nsamples = 896\nvalue = [894, 2]"] ;
21 -> 22 ;
23 [label="gini = 0.0\nsamples = 82\nvalue = [82, 0]"] ;
22 -> 23 ;
24 [label="icu_yn_Unknown <= 0.5\ngini = 0.005\nsamples = 814\nvalue = [812, 2]"] ;
22 -> 24 ;
25 [label="gini = 0.0\nsamples = 23\nvalue = [23, 0]"] ;
24 -> 25 ;
26 [label="hosp_yn_Unknown <= 0.5\ngini = 0.005\nsamples = 791\nvalue = [789, 2]"] ;
24 -> 26 ;
27 [label="gini = 0.005\nsamples = 391\nvalue = [390, 1]"] ;
26 -> 27 ;
28 [label="gini = 0.005\nsamples = 400\nvalue = [399, 1]"] ;
26 -> 28 ;
29 [label="icu_yn_Unknown <= 0.5\ngini = 0.027\nsamples = 73\nvalue = [72, 1]"] ;
21 -> 29 ;
30 [label="gini = 0.0\nsamples = 29\nvalue = [29, 0]"] ;
29 -> 30 ;
31 [label="hosp_yn_Unknown <= 0.5\ngini = 0.044\nsamples = 44\nvalue = [43, 1]"] ;
29 -> 31 ;
32 [label="gini = 0.056\nsamples = 35\nvalue = [34, 1]"] ;
31 -> 32 ;
33 [label="gini = 0.0\nsamples = 9\nvalue = [9, 0]"] ;
31 -> 33 ;
34 [label="hosp_yn_Unknown <= 0.5\ngini = 0.015\nsamples = 939\nvalue = [932, 7]"] ;
4 -> 34 ;
35 [label="medcond_yn_Unknown <= 0.5\ngini = 0.007\nsamples = 547\nvalue = [545, 2]"] ;
34 -> 35 ;
36 [label="gini = 0.0\nsamples = 154\nvalue = [154, 0]"] ;
35 -> 36 ;
37 [label="icu_yn_Unknown <= 0.5\ngini = 0.01\nsamples = 393\nvalue = [391, 2]"] ;
35 -> 37 ;
38 [label="gini = 0.0\nsamples = 21\nvalue = [21, 0]"] ;
37 -> 38 ;
39 [label="gini = 0.011\nsamples = 372\nvalue = [370, 2]"] ;
37 -> 39 ;
40 [label="medcond_yn_Unknown <= 0.5\ngini = 0.025\nsamples = 392\nvalue = [387, 5]"] ;
34 -> 40 ;
41 [label="gini = 0.0\nsamples = 39\nvalue = [39, 0]"] ;
40 -> 41 ;
42 [label="icu_yn_Unknown <= 0.5\ngini = 0.028\nsamples = 353\nvalue = [348, 5]"] ;
40 -> 42 ;
43 [label="gini = 0.0\nsamples = 1\nvalue = [1, 0]"] ;
42 -> 43 ;
44 [label="gini = 0.028\nsamples = 352\nvalue = [347, 5]"] ;
42 -> 44 ;
45 [label="hosp_yn_Unknown <= 0.5\ngini = 0.028\nsamples = 626\nvalue = [617, 9]"] ;
3 -> 45 ;
46 [label="icu_yn_Unknown <= 0.5\ngini = 0.022\nsamples = 358\nvalue = [354, 4]"] ;
45 -> 46 ;
47 [label="medcond_yn_Yes <= 0.5\ngini = 0.035\nsamples = 56\nvalue = [55, 1]"] ;
46 -> 47 ;
48 [label="gini = 0.0\nsamples = 27\nvalue = [27, 0]"] ;
47 -> 48 ;
49 [label="gini = 0.067\nsamples = 29\nvalue = [28, 1]"] ;
47 -> 49 ;
50 [label="medcond_yn_Unknown <= 0.5\ngini = 0.02\nsamples = 302\nvalue = [299, 3]"] ;
46 -> 50 ;
51 [label="gini = 0.0\nsamples = 59\nvalue = [59, 0]"] ;
50 -> 51 ;
52 [label="gini = 0.024\nsamples = 243\nvalue = [240, 3]"] ;
50 -> 52 ;
53 [label="medcond_yn_Unknown <= 0.5\ngini = 0.037\nsamples = 268\nvalue = [263, 5]"] ;
45 -> 53 ;
54 [label="gini = 0.0\nsamples = 22\nvalue = [22, 0]"] ;
53 -> 54 ;
55 [label="icu_yn_Unknown <= 0.5\ngini = 0.04\nsamples = 246\nvalue = [241, 5]"] ;
53 -> 55 ;
56 [label="gini = 0.0\nsamples = 2\nvalue = [2, 0]"] ;
55 -> 56 ;
57 [label="gini = 0.04\nsamples = 244\nvalue = [239, 5]"] ;
55 -> 57 ;
58 [label="hosp_yn_Unknown <= 0.5\ngini = 0.151\nsamples = 316\nvalue = [290, 26]"] ;
2 -> 58 ;
59 [label="medcond_yn_Unknown <= 0.5\ngini = 0.101\nsamples = 169\nvalue = [160, 9]"] ;
58 -> 59 ;
60 [label="icu_yn_Unknown <= 0.5\ngini = 0.043\nsamples = 46\nvalue = [45, 1]"] ;
59 -> 60 ;
61 [label="medcond_yn_Yes <= 0.5\ngini = 0.095\nsamples = 20\nvalue = [19, 1]"] ;
60 -> 61 ;
62 [label="gini = 0.0\nsamples = 5\nvalue = [5, 0]"] ;
61 -> 62 ;
63 [label="gini = 0.124\nsamples = 15\nvalue = [14, 1]"] ;
61 -> 63 ;
64 [label="gini = 0.0\nsamples = 26\nvalue = [26, 0]"] ;
60 -> 64 ;
65 [label="icu_yn_Unknown <= 0.5\ngini = 0.122\nsamples = 123\nvalue = [115, 8]"] ;
59 -> 65 ;
66 [label="gini = 0.0\nsamples = 7\nvalue = [7, 0]"] ;
65 -> 66 ;
67 [label="gini = 0.128\nsamples = 116\nvalue = [108, 8]"] ;
65 -> 67 ;
68 [label="medcond_yn_Yes <= 0.5\ngini = 0.205\nsamples = 147\nvalue = [130, 17]"] ;
58 -> 68 ;
69 [label="medcond_yn_Unknown <= 0.5\ngini = 0.201\nsamples = 141\nvalue = [125, 16]"] ;
68 -> 69 ;
70 [label="gini = 0.0\nsamples = 6\nvalue = [6, 0]"] ;
69 -> 70 ;
71 [label="gini = 0.209\nsamples = 135\nvalue = [119, 16]"] ;
69 -> 71 ;
72 [label="icu_yn_Unknown <= 0.5\ngini = 0.278\nsamples = 6\nvalue = [5, 1]"] ;
68 -> 72 ;
73 [label="gini = 0.0\nsamples = 1\nvalue = [1, 0]"] ;
72 -> 73 ;
74 [label="gini = 0.32\nsamples = 5\nvalue = [4, 1]"] ;
72 -> 74 ;
75 [label="hosp_yn_Unknown <= 0.5\ngini = 0.359\nsamples = 243\nvalue = [186, 57]"] ;
1 -> 75 ;
76 [label="icu_yn_Unknown <= 0.5\ngini = 0.257\nsamples = 119\nvalue = [101, 18]"] ;
75 -> 76 ;
77 [label="medcond_yn_Unknown <= 0.5\ngini = 0.133\nsamples = 14\nvalue = [13, 1]"] ;
76 -> 77 ;
78 [label="gini = 0.153\nsamples = 12\nvalue = [11, 1]"] ;
77 -> 78 ;
79 [label="gini = 0.0\nsamples = 2\nvalue = [2, 0]"] ;
77 -> 79 ;
80 [label="medcond_yn_Yes <= 0.5\ngini = 0.271\nsamples = 105\nvalue = [88, 17]"] ;
76 -> 80 ;
81 [label="medcond_yn_Unknown <= 0.5\ngini = 0.264\nsamples = 83\nvalue = [70, 13]"] ;
80 -> 81 ;
82 [label="gini = 0.0\nsamples = 3\nvalue = [3, 0]"] ;
81 -> 82 ;
83 [label="gini = 0.272\nsamples = 80\nvalue = [67, 13]"] ;
81 -> 83 ;
84 [label="gini = 0.298\nsamples = 22\nvalue = [18, 4]"] ;
80 -> 84 ;
85 [label="icu_yn_Unknown <= 0.5\ngini = 0.431\nsamples = 124\nvalue = [85, 39]"] ;
75 -> 85 ;
86 [label="gini = 0.0\nsamples = 1\nvalue = [1, 0]"] ;
85 -> 86 ;
87 [label="medcond_yn_Unknown <= 0.5\ngini = 0.433\nsamples = 123\nvalue = [84, 39]"] ;
85 -> 87 ;
88 [label="gini = 0.444\nsamples = 12\nvalue = [8, 4]"] ;
87 -> 88 ;
89 [label="gini = 0.432\nsamples = 111\nvalue = [76, 35]"] ;
87 -> 89 ;
90 [label="icu_yn_Yes <= 0.5\ngini = 0.41\nsamples = 490\nvalue = [349, 141]"] ;
0 -> 90 [labeldistance=2.5, labelangle=-45, headlabel="False"] ;
91 [label="age_group_80+ Years <= 0.5\ngini = 0.373\nsamples = 439\nvalue = [330, 109]"] ;
90 -> 91 ;
92 [label="age_group_70 - 79 Years <= 0.5\ngini = 0.303\nsamples = 339\nvalue = [276, 63]"] ;
91 -> 92 ;
93 [label="age_group_60 - 69 Years <= 0.5\ngini = 0.228\nsamples = 252\nvalue = [219, 33]"] ;
92 -> 93 ;
94 [label="medcond_yn_Yes <= 0.5\ngini = 0.093\nsamples = 163\nvalue = [155, 8]"] ;
93 -> 94 ;
95 [label="icu_yn_Unknown <= 0.5\ngini = 0.028\nsamples = 139\nvalue = [137, 2]"] ;
94 -> 95 ;
96 [label="age_group_50 - 59 Years <= 0.5\ngini = 0.074\nsamples = 26\nvalue = [25, 1]"] ;
95 -> 96 ;
97 [label="gini = 0.0\nsamples = 18\nvalue = [18, 0]"] ;
96 -> 97 ;
98 [label="medcond_yn_Unknown <= 0.5\ngini = 0.219\nsamples = 8\nvalue = [7, 1]"] ;
96 -> 98 ;
99 [label="gini = 0.0\nsamples = 2\nvalue = [2, 0]"] ;
98 -> 99 ;
100 [label="gini = 0.278\nsamples = 6\nvalue = [5, 1]"] ;
98 -> 100 ;
101 [label="age_group_40 - 49 Years <= 0.5\ngini = 0.018\nsamples = 113\nvalue = [112, 1]"] ;
95 -> 101 ;
102 [label="gini = 0.0\nsamples = 78\nvalue = [78, 0]"] ;
101 -> 102 ;
103 [label="gini = 0.056\nsamples = 35\nvalue = [34, 1]"] ;
101 -> 103 ;
104 [label="age_group_50 - 59 Years <= 0.5\ngini = 0.375\nsamples = 24\nvalue = [18, 6]"] ;
94 -> 104 ;
105 [label="age_group_20 - 29 Years <= 0.5\ngini = 0.219\nsamples = 16\nvalue = [14, 2]"] ;
104 -> 105 ;
106 [label="icu_yn_Unknown <= 0.5\ngini = 0.26\nsamples = 13\nvalue = [11, 2]"] ;
105 -> 106 ;
107 [label="age_group_40 - 49 Years <= 0.5\ngini = 0.198\nsamples = 9\nvalue = [8, 1]"] ;
106 -> 107 ;
108 [label="gini = 0.0\nsamples = 2\nvalue = [2, 0]"] ;
107 -> 108 ;
109 [label="gini = 0.245\nsamples = 7\nvalue = [6, 1]"] ;
107 -> 109 ;
110 [label="age_group_30 - 39 Years <= 0.5\ngini = 0.375\nsamples = 4\nvalue = [3, 1]"] ;
106 -> 110 ;
111 [label="gini = 0.0\nsamples = 1\nvalue = [1, 0]"] ;
110 -> 111 ;
112 [label="gini = 0.444\nsamples = 3\nvalue = [2, 1]"] ;
110 -> 112 ;
113 [label="gini = 0.0\nsamples = 3\nvalue = [3, 0]"] ;
105 -> 113 ;
114 [label="icu_yn_Unknown <= 0.5\ngini = 0.5\nsamples = 8\nvalue = [4, 4]"] ;
104 -> 114 ;
115 [label="gini = 0.375\nsamples = 4\nvalue = [3, 1]"] ;
114 -> 115 ;
116 [label="gini = 0.375\nsamples = 4\nvalue = [1, 3]"] ;
114 -> 116 ;
117 [label="icu_yn_Unknown <= 0.5\ngini = 0.404\nsamples = 89\nvalue = [64, 25]"] ;
93 -> 117 ;
118 [label="medcond_yn_Yes <= 0.5\ngini = 0.227\nsamples = 23\nvalue = [20, 3]"] ;
117 -> 118 ;
119 [label="gini = 0.0\nsamples = 11\nvalue = [11, 0]"] ;
118 -> 119 ;
120 [label="gini = 0.375\nsamples = 12\nvalue = [9, 3]"] ;
118 -> 120 ;
121 [label="medcond_yn_Yes <= 0.5\ngini = 0.444\nsamples = 66\nvalue = [44, 22]"] ;
117 -> 121 ;
122 [label="medcond_yn_Unknown <= 0.5\ngini = 0.432\nsamples = 57\nvalue = [39, 18]"] ;
121 -> 122 ;
123 [label="gini = 0.0\nsamples = 1\nvalue = [1, 0]"] ;
122 -> 123 ;
124 [label="gini = 0.436\nsamples = 56\nvalue = [38, 18]"] ;
122 -> 124 ;
125 [label="gini = 0.494\nsamples = 9\nvalue = [5, 4]"] ;
121 -> 125 ;
126 [label="icu_yn_Unknown <= 0.5\ngini = 0.452\nsamples = 87\nvalue = [57, 30]"] ;
92 -> 126 ;
127 [label="medcond_yn_Yes <= 0.5\ngini = 0.188\nsamples = 19\nvalue = [17, 2]"] ;
126 -> 127 ;
128 [label="gini = 0.0\nsamples = 8\nvalue = [8, 0]"] ;
127 -> 128 ;
129 [label="gini = 0.298\nsamples = 11\nvalue = [9, 2]"] ;
127 -> 129 ;
130 [label="medcond_yn_Yes <= 0.5\ngini = 0.484\nsamples = 68\nvalue = [40, 28]"] ;
126 -> 130 ;
131 [label="medcond_yn_Unknown <= 0.5\ngini = 0.473\nsamples = 60\nvalue = [37, 23]"] ;
130 -> 131 ;
132 [label="gini = 0.0\nsamples = 1\nvalue = [1, 0]"] ;
131 -> 132 ;
133 [label="gini = 0.476\nsamples = 59\nvalue = [36, 23]"] ;
131 -> 133 ;
134 [label="gini = 0.469\nsamples = 8\nvalue = [3, 5]"] ;
130 -> 134 ;
135 [label="icu_yn_Unknown <= 0.5\ngini = 0.497\nsamples = 100\nvalue = [54, 46]"] ;
91 -> 135 ;
136 [label="medcond_yn_Yes <= 0.5\ngini = 0.408\nsamples = 21\nvalue = [15, 6]"] ;
135 -> 136 ;
137 [label="medcond_yn_Unknown <= 0.5\ngini = 0.245\nsamples = 7\nvalue = [6, 1]"] ;
136 -> 137 ;
138 [label="gini = 0.0\nsamples = 2\nvalue = [2, 0]"] ;
137 -> 138 ;
139 [label="gini = 0.32\nsamples = 5\nvalue = [4, 1]"] ;
137 -> 139 ;
140 [label="gini = 0.459\nsamples = 14\nvalue = [9, 5]"] ;
136 -> 140 ;
141 [label="medcond_yn_Unknown <= 0.5\ngini = 0.5\nsamples = 79\nvalue = [39, 40]"] ;
135 -> 141 ;
142 [label="medcond_yn_Yes <= 0.5\ngini = 0.375\nsamples = 16\nvalue = [4, 12]"] ;
141 -> 142 ;
143 [label="gini = 0.0\nsamples = 2\nvalue = [0, 2]"] ;
142 -> 143 ;
144 [label="gini = 0.408\nsamples = 14\nvalue = [4, 10]"] ;
142 -> 144 ;
145 [label="gini = 0.494\nsamples = 63\nvalue = [35, 28]"] ;
141 -> 145 ;
146 [label="medcond_yn_Yes <= 0.5\ngini = 0.468\nsamples = 51\nvalue = [19, 32]"] ;
90 -> 146 ;
147 [label="medcond_yn_Unknown <= 0.5\ngini = 0.495\nsamples = 29\nvalue = [16, 13]"] ;
146 -> 147 ;
148 [label="gini = 0.0\nsamples = 2\nvalue = [2, 0]"] ;
147 -> 148 ;
149 [label="age_group_20 - 29 Years <= 0.5\ngini = 0.499\nsamples = 27\nvalue = [14, 13]"] ;
147 -> 149 ;
150 [label="age_group_40 - 49 Years <= 0.5\ngini = 0.5\nsamples = 26\nvalue = [13, 13]"] ;
149 -> 150 ;
151 [label="age_group_60 - 69 Years <= 0.5\ngini = 0.499\nsamples = 25\nvalue = [12, 13]"] ;
150 -> 151 ;
152 [label="age_group_70 - 79 Years <= 0.5\ngini = 0.49\nsamples = 14\nvalue = [6, 8]"] ;
151 -> 152 ;
153 [label="age_group_80+ Years <= 0.5\ngini = 0.486\nsamples = 12\nvalue = [5, 7]"] ;
152 -> 153 ;
154 [label="gini = 0.49\nsamples = 7\nvalue = [3, 4]"] ;
153 -> 154 ;
155 [label="gini = 0.48\nsamples = 5\nvalue = [2, 3]"] ;
153 -> 155 ;
156 [label="gini = 0.5\nsamples = 2\nvalue = [1, 1]"] ;
152 -> 156 ;
157 [label="gini = 0.496\nsamples = 11\nvalue = [6, 5]"] ;
151 -> 157 ;
158 [label="gini = 0.0\nsamples = 1\nvalue = [1, 0]"] ;
150 -> 158 ;
159 [label="gini = 0.0\nsamples = 1\nvalue = [1, 0]"] ;
149 -> 159 ;
160 [label="age_group_50 - 59 Years <= 0.5\ngini = 0.236\nsamples = 22\nvalue = [3, 19]"] ;
146 -> 160 ;
161 [label="age_group_70 - 79 Years <= 0.5\ngini = 0.278\nsamples = 18\nvalue = [3, 15]"] ;
160 -> 161 ;
162 [label="age_group_80+ Years <= 0.5\ngini = 0.26\nsamples = 13\nvalue = [2, 11]"] ;
161 -> 162 ;
163 [label="gini = 0.245\nsamples = 7\nvalue = [1, 6]"] ;
162 -> 163 ;
164 [label="gini = 0.278\nsamples = 6\nvalue = [1, 5]"] ;
162 -> 164 ;
165 [label="gini = 0.32\nsamples = 5\nvalue = [1, 4]"] ;
161 -> 165 ;
166 [label="gini = 0.0\nsamples = 4\nvalue = [0, 4]"] ;
160 -> 166 ;
}